-18
15
26
32
9
25
29
-8
4
11
8
-1
4
5
-6
20
-3
-9
-10
-1
-13
9
-13
30
14
10
34
20
-20
-10
-5
-4
4
10
-4
-27
-50
-24
-5
-6
13
15
3
-46
-22
16
0
-1
-23
8
12
-8
4
-15
17
13
26
26
-4
-13
-28
21
52
-19
24
7
-15
-17
14
-24
-40
7
-24
13
-7
4
9
-19
22
7
2
-13
23
-6
2
20
17
-23
-9
-17
22
20
3
26
-20
4
-50
16
-12
22
39
16
27
2
-12
-8
10
-19
11
-31
-8
-11
-6
4
-3
-5
-20
11
5
-30
21
2
4
-18
0
-10
-13
59
1
10
-11
-10
33
-3
-26
8
9
4
20
-32
-1
-23
16
20
3
12
2
-10
11
-9
6
11
-29
-32
-5
-29
17
19
36
11
-33
-29
42
-34
0
-50
-82
-12
-17
-1
2
-4
29
32
32
17
-39
-2
-15
5
3
15
12
13
24
-15
10
6
-18
48
-13
-42
-13
-8
-14
-43
-44
-29
-16
-52
-65
-59
-42
-63
-92
-44
-60
-29
44
-36
-55
4
-13
33
5
3
45
-21
26
8
7
2
0
-1
34
-14
10
7
-12
7
-7
17
-2
-3
7
-12
4
0
21
-3
2
-30
1
-28
-50
-24
-44
-9
4
19
14
-24
30
37
28
23
29
10
10
-8
33
-13
-17
13
-17
31
12
-21
5
-22
26
28
-7
-6
-3
13
-16
4
4
-81
-26
7
-8
0
-1
-15
-24
7
-22
-12
-11
4
-11
23
0
-14
5
-18
20
-23
1
8
16
19
12
-10
-24
-15
-4
23
13
1
-27
3
13
-3
-4
-35
-18
-11
-23
-5
31
7
-36
46
27
-11
-17
-1
-17
-1
-4
-9
-23
11
-21
17
13
-22
-16
-7
9
-16
9
15
-18
32
10
12
-24
4
-30
24
2
5
17
9
37
20
3
-43
-16
10
32
10
19
-27
-11
-33
12
14
-4
1
-14
-13
-29
-4
21
17
-7
-19
4
-27
29
-8
18
34
9
24
-8
-16
-21
-13
-13
24
24
-23
6
-1
-8
16
-6
29
-19
26
2
-11
13
4
-16
27
-12
-14
-37
-49
-69
-63
-21
-2
22
-24
16
10
13
-5
-1
3
14
6
17
21
-16
3
12
5
7
5
2
-24
2
-10
-10
-5
-10
-10
-12
41
4
-1
-11
51
81
37
3
-11
11
8
-7
5
-3
-14
-12
5
21
-1
4
-27
-15
-3
-21
10
5
4
-23
18
-3
-5
9
7
28
-2
-28
0
6
8
34
10
43
12
-4
20
-27
22
15
8
3
-1
-34
9
7
17
-50
-55
-101
-88
-24
-40
-6
-45
-69
-15
-4
21
63
51
28
37
44
20
22
-10
28
-23
17
12
40
0
30
-2
37
-37
-87
-50
-87
40
-40
-22
-13
16
26
4
-33
-3
-6
11
22
-14
2
-23
3
15
7
-1
-13
21
-3
4
3
11
-5
7
9
-15
10
11
13
6
0
-15
-13
-3
-30
-51
-34
-9
-4
14
8
-7
-9
29
18
-30
-17
33
4
30
-6
-6
-12
25
36
-39
5
-28
-5
-19
26
65
-18
23
0
-22
12
-3
13
24
1
19
31
-8
-4
-18
11
-18
12
16
-16
16
24
-44
-35
-25
20
-7
43
-2
-15
-57
-32
41
7
19
7
-17
-19
2
55
16
11
2
-17
-26
9
-14
-12
3
26
-9
-11
-39
11
3
-5
7
-13
3
-11
1
14
16
27
-55
12
17
-8
-10
-12
17
10
23
-14
15
3
-2
-7
40
-17
7
-30
-11
-2
-11
12
-17
23
0
32
12
-18
20
19
7
-1
-29
9
12
-6
-23
10
17
1
-1
7
-4
-13
-11
23
-23
-29
-5
-2
-3
19
-3
23
-8
-1
-11
-26
33
-5
8
-27
-29
-26
19
32
7
-3
-54
15
19
28
-7
0
-32
-22
-16
17
22
0
8
-29
-20
-16
-25
8
9
-9
16
-26
-1
5
11
-8
19
-2
9
-13
11
8
11
21
-12
56
6
-10
-2
-18
-12
-62
3
-9
25
-6
-34
11
9
18
23
-19
1
-6
10
8
1
-6
-18
-13
-7
7
-10
17
-20
25
9
7
-2
5
-22
25
0
-16
13
3
-14
21
24
-7
-14
8
-15
-34
-31
30
-3
16
11
5
-9
-30
34
-11
25
-9
-7
29
23
18
2
-18
18
-18
19
-15
33
3
6
5
8
11
25
11
7
-16
17
8
7
6
16
14
-11
-3
-51
-10
22
8
5
-4
0
-5
-20
25
-6
18
-11
2
-13
29
22
10
19
7
-19
-4
-11
0
-4
-9
-4
6
26
3
-5
-1
-37
-23
4
-8
-10
-44
-42
-52
39
5
-4
15
39
74
27
4
8
-15
-7
22
-6
22
15
14
18
19
32
-12
38
-24
-31
-32
17
-54
16
-43
-29
2
24
8
-10
-26
23
-9
10
20
16
-1
-25
24
13
-4
16
-9
-3
6
4
-12
15
-16
-18
-9
-5
-4
-16
4
0
18
18
7
19
26
-23
19
5
-38
-50
-47
-55
-15
48
23
-61
-9
-23
8
28
4
-6
-66
2
32
14
4
14
-26
-102
20
3
-11
0
13
16
-6
1
-22
4
-6
13
12
4
25
13
27
21
5
0
-5
-30
-1
-6
6
-4
2
15
-29
21
-6
-23
-13
3
-3
15
-23
2
-60
-9
-16
0
23
43
20
42
33
0
-4
-23
5
-18
-6
-16
-26
12
12
14
18
-11
19
-2
-21
-21
0
15
0
2
-6
-27
-26
0
-16
11
44
7
34
17
-17
-14
-31
-56
-6
36
13
38
0
-26
-53
-12
23
6
23
-8
-15
-31
-11
40
10
27
-2
-4
5
-2
-23
-19
-38
-44
-63
-58
-25
-42
-27
-24
-13
8
-9
27
-24
2
-25
21
10
-5
11
13
-30
-26
-13
25
11
13
4
-32
29
29
1
22
-5
2
9
22
-8
-4
-18
9
17
-3
0
20
24
-38
22
-20
2
-9
-15
42
0
13
-7
7
-7
-10
4
5
-9
-17
6
-3
8
-4
-14
-3
13
-42
-59
-26
10
27
-4
4
-21
-29
-8
-6
15
-4
15
15
-4
5
9
7
-8
-2
1
-1
-20
-8
-9
22
9
25
-4
-28
1
-53
22
12
9
31
16
-40
-28
-39
7
14
21
5
-14
8
-32
19
-15
32
-3
-13
0
-21
-32
38
-8
-2
3
-10
49
-42
-50
-27
-26
42
-14
31
20
-32
-2
-10
36
-28
-53
-20
-11
8
14
70
15
-2
-20
0
2
-4
18
-10
-12
3
6
-13
20
15
6
12
11
23
-40
-6
-11
-10
19
-5
-1
-8
-3
-10
1
-11
-4
-9
11
-12
26
20
-18
-6
7
8
-7
14
37
48
9
42
37
5
30
26
-36
10
-11
1
5
19
12
-6
1
-14
-5
25
-3
25
4
-17
-8
34
-6
18
16
4
12
-7
-49
-16
11
-6
33
-8
16
-18
-23
-7
-7
6
-5
5
-14
2
14
-1
0
11
7
18
-10
-12
43
6
2
3
19
11
-10
-9
-13
-14
35
-36
-43
27
14
15
39
24
20
-16
14
8
-17
-12
7
18
18
4
20
0
-28
1
-13
-9
4
-3
2
-1
16
-23
-2
10
11
-25
3
28
3
22
13
-22
3
-20
-23
10
0
-11
-2
23
0
34
26
-22
2
0
-27
-18
-32
-33
-12
-7
-14
-9
16
9
17
4
44
7
-4
-15
-17
4
14
5
-4
5
3
-7
7
-18
4
4
-12
-48
8
2
15
2
9
-11
21
5
-33
-10
-32
-3
33
29
-9
20
-6
1
10
-12
-30
-36
-45
20
3
24
29
-6
20
0
7
14
1
-36
-12
-11
0
14
21
-7
-7
12
41
17
56
16
24
34
6
15
1
23
6
-10
21
-7
38
-11
-20
-1
3
31
23
0
-10
-36
-29
21
-21
-3
-5
4
-4
-3
13
-20
16
4
-13
11
-30
-4
-4
21
18
12
-14
5
14
16
13
-2
8
8
-3
-29
12
9
-11
6
-17
-24
1
32
7
-17
-32
-39
-11
-76
-33
-1
-44
-15
-17
13
-15
2
-34
16
-35
36
-30
5
4
23
25
7
26
-11
-65
-26
-30
-38
20
-13
-7
-24
-16
-6
-13
-6
15
-10
35
-5
4
17
8
19
-25
-5
18
21
-6
0
-7
-1
-8
-8
7
10
-17
-29
15
-3
-9
-19
5
15
-27
-24
21
30
-35
16
17
-16
-12
11
11
18
8
1
-15
-10
-10
-22
-39
1
15
-11
12
6
-32
-16
-10
-28
-30
3
6
-1
16
27
-2
30
31
-5
24
14
14
28
28
12
16
21
38
0
-6
-40
-45
31
-7
-1
-44
-23
5
-30
0
9
-23
11
2
-2
-17
-16
-12
-48
-39
20
21
13
-21
-55
22
7
-17
8
-38
-19
3
23
-11
19
19
19
13
-8
-4
-19
2
-1
-30
4
17
8
19
-24
-10
-21
-15
5
12
14
-6
9
32
-9
18
0
8
-12
-27
23
2
3
-21
2
12
-3
-17
-13
-28
-4
-19
22
30
-6
53
16
56
-10
20
0
-4
1
-10
-19
-6
-9
26
18
12
-24
-13
7
-21
1
20
34
-20
3
-8
18
20
34
26
-7
-20
-2
-3
5
8
13
18
25
2
-5
17
2
17
-9
1
12
5
20
5
-12
-13
-9
13
-28
20
-4
24
14
9
1
-6
-1
-8
4
-24
-22
-41
-21
10
-15
-7
-29
3
-2
7
-13
-3
-13
-4
0
14
-20
-2
-8
15
-15
17
4
22
14
-7
-19
-1
9
4
40
-71
17
37
29
21
16
-58
30
-48
18
-3
-30
35
-4
14
6
-9
5
23
28
-1
-13
-16
-3
2
-2
36
-3
-6
-8
6
12
19
56
-20
7
-9
-40
-28
-11
-4
65
-48
17
-52
-5
-38
8
47
-35
67
25
44
-3
4
-23
3
19
-21
22
36
12
34
-2
-27
-8
-2
9
22
11
12
1
12
25
12
3
13
-19
-10
-6
-16
-1
-10
-6
-26
-41
-17
3
-35
-11
-11
-32
-65
-21
-8
-9
-2
-44
-14
11
11
-18
-23
-20
-13
13
8
11
-4
-7
-9
7
10
-16
9
11
9
17
2
-31
2
-30
27
-6
-28
1
-30
-5
15
23
8
-7
38
-34
22
7
18
12
26
-13
-28
-42
8
-32
-10
-7
-8
25
-37
-17
-20
0
-13
22
-10
-1
-23
37
-10
3
23
21
-8
-20
13
5
31
-20
-2
5
10
25
-24
24
2
15
25
-4
7
7
25
-9
25
6
14
6
5
-46
-33
-10
36
-15
23
-32
-20
-60
-3
9
5
11
7
7
-12
-2
16
-19
10
13
12
5
5
-2
-2
14
19
0
9
11
9
16
10
15
1
-11
-16
24
11
-8
-15
-8
-23
-39
-18
5
-29
7
-7
6
-15
-13
-22
-8
13
4
15
15
-8
14
-23
-1
20
-20
27
1
-11
25
17
24
17
-53
2
-15
8
21
34
8
16
23
-42
19
-40
13
-21
-9
-9
12
-21
-19
-19
-20
-50
-39
-16
-8
7
-5
1
0
30
12
-28
21
23
-5
-13
-3
-27
13
-25
0
-14
-9
15
-11
3
1
-1
-9
10
10
-2
23
-1
10
15
8
-23
16
-48
2
24
4
35
30
13
3
-1
-35
11
5
-3
23
-3
-14
-13
-23
-3
-2
-22
-2
-11
18
-22
18
-5
-16
5
4
2
-23
-6
-9
-6
-28
22
-10
12
25
21
19
33
3
26
5
20
7
-4
3
-13
-24
-10
11
-17
10
0
-34
-5
-29
-4
22
9
-20
15
-14
-16
-9
23
32
-39
-25
6
1
42
5
-5
14
-5
15
29
1
-18
-8
-15
8
8
24
7
9
10
14
-38
-2
6
-25
12
19
-26
-27
-14
7
5
28
2
-10
10
6
9
2
9
3
8
4
6
15
-15
-8
-10
-49
3
-27
-6
-16
28
2
31
-18
-42
-23
18
5
-3
37
-29
22
-14
-18
7
23
-8
-16
-24
17
5
23
0
-32
3
10
11
14
2
-21
-7
-1
11
16
15
8
-7
-16
5
6
-24
8
-3
11
0
18
10
17
6
-10
12
19
-23
19
11
10
-30
-24
-37
-3
-7
-11
17
-9
5
0
32
-5
-27
11
7
6
-16
-18
-3
6
-7
5
16
-31
-21
-6
-14
-10
-8
-5
20
23
15
22
23
8
26
27
-6
30
23
9
13
2
-27
1
-21
17
-23
18
18
20
0
-16
-6
25
-20
-7
-36
15
33
-8
56
-15
14
-1
14
-42
8
12
7
2
8
19
-6
12
14
-20
-4
-10
-27
-3
10
3
-10
-23
22
13
21
23
-5
4
-36
6
10
13
0
24
-35
-38
-71
-45
-82
-15
-76
-16
4
0
17
-12
54
-1
-24
37
43
30
15
1
15
-11
-2
6
5
-2
-15
-23
-1
-11
-17
19
3
33
46
18
41
38
-18
-30
1
-37
-43
-51
-29
-29
18
26
-9
-3
-32
-4
20
17
33
-12
-17
27
24
21
-8
-12
13
0
19
6
3
9
19
-7
-5
13
18
6
16
12
21
-6
-8
-3
-11
-11
-6
-30
-19
-18
-12
6
-17
1
-1
-7
34
-12
14
1
9
10
4
37
39
19
30
-55
-7
-30
-8
-35
30
-39
15
3
-26
-9
-34
3
-24
19
14
3
33
-28
2
13
16
7
21
2
27
32
4
13
13
8
3
3
33
24
-11
-1
35
27
-18
16
24
-13
5
-15
6
21
-30
8
-28
3
-26
-8
7
-7
13
-33
-19
12
0
2
20
-23
8
14
16
26
-15
15
-23
8
11
17
26
2
-7
-6
-5
22
-1
-11
6
-9
1
16
15
-6
15
-26
-11
5
-7
21
-12
13
-4
-41
-38
-35
-16
4
-30
-33
-21
-42
-31
-22
-2
5
27
-2
7
-5
-26
-7
-15
1
16
17
-20
-33
-20
-12
2
28
13
-38
23
25
11
18
7
-1
6
18
29
-31
-53
-25
-29
-7
-4
-28
31
23
5
5
-6
-10
-4
19
4
12
12
4
-1
13
-4
10
-3
14
26
12
12
-7
-23
36
54
14
18
3
11
-2
2
43
-16
-20
-33
6
9
0
-6
-43
7
-17
3
-24
-10
-7
-14
-8
7
33
-6
29
22
50
22
27
6
-1
-7
5
14
-5
-1
-19
-6
-6
-24
-4
-27
-18
2
3
10
-7
-31
-13
-20
-5
-36
-17
-71
-110
-39
-30
1
15
17
49
-20
7
43
2
-3
25
-14
17
5
12
-2
-15
13
0
15
-14
8
0
27
-9
-19
5
23
13
16
31
0
3
-30
11
-7
-14
8
17
21
34
-8
0
-2
-8
-20
-4
-10
-9
5
15
-5
5
1
-7
25
-23
5
11
-4
-2
-4
-8
7
-49
8
7
-15
4
-21
-30
-42
-7
-16
39
-7
-2
21
3
37
15
0
11
-9
29
18
5
5
-37
8
-2
1
20
-40
-12
-32
-3
8
-8
9
-10
-17
4
-17
-14
-23
-16
3
-11
31
-4
-8
4
-9
22
5
14
11
11
25
27
15
21
-12
3
10
8
-15
56
7
-10
-16
-25
-47
-56
-24
-11
-36
-8
-21
-2
-4
28
10
8
1
-2
22
5
-10
4
-16
-41
2
-11
0
14
3
-47
-21
16
10
-7
20
25
-5
23
2
6
-18
12
-9
18
19
8
-20
-1
0
-15
6
-14
15
23
-9
35
2
3
12
16
33
2
8
22
10
10
9
11
-16
4
-7
1
-23
-11
9
-10
-28
-7
-25
9
9
-12
-8
-19
11
-4
24
17
-18
17
11
3
24
29
11
5
-36
30
25
25
12
34
24
-2
-64
-30
-20
20
9
-8
28
-60
7
-12
7
-1
-23
16
6
18
-32
-6
11
1
-17
0
8
29
-5
-2
-2
-14
16
-25
-47
10
6
-7
21
-22
4
13
7
30
9
12
8
-6
-18
7
10
-30
26
10
-33
-22
-36
-31
27
-22
19
-27
-47
-11
1
21
17
25
-1
-27
-23
-45
9
5
-15
1
-10
17
-20
3
23
-21
16
-5
-6
16
40
42
-5
-11
8
-6
-8
15
-5
13
-14
18
15
-26
13
-22
14
7
11
15
-36
5
-25
-14
-10
7
37
9
19
12
-10
-5
-30
10
2
-6
35
-33
-17
3
-25
12
-2
17
-10
-13
12
-1
-4
37
-52
-19
-11
-12
17
24
13
-2
22
-7
12
39
-6
7
-16
23
-8
1
0
-16
-12
-7
-23
-8
-6
-19
-28
19
-21
9
-6
26
14
-21
-4
-27
-7
-7
-1
-6
10
17
17
-28
0
-5
2
-5
-15
24
-10
-8
-1
-7
5
17
0
-11
17
-30
11
-14
5
-24
-4
-1
5
-11
11
2
2
23
-11
2
-17
-21
9
5
-8
5
-42
-14
-39
31
7
1
15
-9
-21
18
46
-9
16
-18
-36
-38
14
-16
-24
39
6
-12
-73
14
-9
1
46
44
-17
-47
-70
-49
-14
10
-1
11
-51
-22
-11
0
-2
12
-44
-20
8
11
-3
17
27
-6
-19
37
-34
3
-2
23
-15
-12
7
-39
-6
-9
8
7
-35
-40
-16
-24
4
-3
-25
8
-39
18
0
-2
-5
9
4
42
-22
4
-7
-2
-23
17
16
-10
10
-13
35
35
21
-1
21
13
-3
8
-25
15
27
4
12
1
-74
-4
-9
24
-3
26
-14
-11
23
-7
52
1
-7
-10
5
-3
8
10
-13
-2
-6
3
-25
3
-13
-29
3
-31
-26
10
-31
-13
-58
-22
-61
8
11
11
1
-22
2
-1
-6
23
-20
21
-1
11
7
4
-2
-43
6
19
-26
9
-15
-80
-7
-21
27
-10
18
4
-9
-3
4
21
17
16
13
-16
-10
-3
-20
2
13
2
33
0
10
-6
-20
11
14
20
-21
-15
14
-21
-5
6
0
9
7
15
31
51
-2
-8
2
-3
21
-9
-9
-3
-30
5
-16
8
5
-21
-13
-10
24
-11
-5
2
-6
19
-25
-40
28
9
-11
20
14
27
20
2
25
2
31
-5
9
-5
35
17
8
8
20
3
-15
-21
-44
-42
-45
2
-16
2
8
12
21
-13
-13
-16
2
0
-10
-6
-17
12
28
8
4
5
6
9
15
13
-4
4
20
4
-8
-1
5
-12
-7
24
-4
1
11
-6
4
-6
6
3
26
18
-14
-12
10
-2
-30
-37
-106
37
-50
22
-13
-28
-16
27
-9
13
9
19
30
2
21
-5
11
8
13
16
15
27
-11
-15
-2
24
15
18
69
24
4
16
9
9
-17
-17
10
20
8
16
-14
8
-3
-13
-10
12
-6
-25
-4
0
-3
-5
-3
16
21
-13
12
4
8
-3
18
9
2
27
7
-15
3
-14
-3
6
-31
28
-1
3
-5
-9
2
-4
23
-36
15
-8
-12
-25
-4
8
24
-35
-3
-16
-26
-7
-58
-30
-7
1
8
10
14
2
-2
1
6
8
21
-1
-19
-13
6
2
-9
-18
11
33
-20
1
11
-3
15
-9
12
-19
32
18
-14
30
13
-19
1
-19
10
20
-50
-53
-18
-50
35
-25
11
30
-6
12
-18
-13
17
0
26
10
21
22
24
-26
3
15
36
0
-20
-15
32
-8
-3
-3
0
-16
-7
20
7
-1
-11
5
-22
-18
28
24
2
-1
-45
-51
-4
6
-1
17
7
1
-18
7
-35
-33
3
29
-14
-9
-6
16
11
20
-10
-15
-25
4
11
22
-11
15
-3
10
4
-6
4
9
15
10
-4
12
-27
-9
-2
2
46
10
22
35
27
5
-5
-16
9
14
-1
20
9
6
-9
10
-5
33
-9
-18
13
12
-7
-7
-40
-13
-23
-1
1
-33
1
-42
15
-31
29
25
-12
-15
-14
-66
18
-2
14
40
-6
13
-4
14
17
-1
4
21
0
1
-20
3
20
19
-16
-43
-30
27
11
-18
-18
-57
-50
-46
-39
-35
-2
-23
-2
-9
25
-6
5
9
-28
31
-1
13
-1
-12
5
5
3
17
16
-23
17
23
16
32
7
4
-6
21
16
32
4
-31
9
-11
-20
-12
13
-22
-1
-14
7
-19
2
13
-11
-6
-12
-2
-8
28
24
13
40
15
35
19
5
-4
4
43
9
13
32
11
13
6
-15
29
-9
3
-34
-9
-19
-3
11
-31
27
-10
13
-18
-17
0
18
-14
1
16
-11
17
12
25
0
-1
6
-24
19
-7
17
11
-2
16
18
0
-6
8
-8
-6
-4
7
17
-15
8
-11
5
2
-33
-28
-56
-74
-66
0
17
25
-9
39
77
34
-23
-5
-11
13
28
28
-14
-13
-1
14
30
-5
-22
-20
-4
9
-46
22
-14
8
-4
32
-20
4
8
19
19
20
20
-4
-2
8
13
-20
4
0
0
1
16
6
-19
-5
-25
4
0
-2
12
-7
-4
-19
2
4
-28
-23
18
3
19
17
-16
-7
-11
-21
-5
-35
-2
-22
-28
1
2
-6
25
-3
-24
3
-17
3
-14
0
-4
-7
-14
-37
9
8
-18
18
2
4
39
16
-41
12
4
23
15
31
-5
-4
-6
15
20
7
-28
2
-5
1
39
16
-16
-13
-11
-11
4
-1
-9
-14
9
-18
20
-12
7
-19
-14
-3
5
-14
26
11
-9
-46
-30
-11
-16
20
-6
-5
-52
-12
-44
-13
21
-16
28
22
6
24
-1
-13
45
-11
1
-2
9
2
34
0
16
-21
14
14
-21
-5
-29
7
-8
-8
8
-31
16
9
7
1
-6
13
-8
5
6
27
14
25
-25
-9
-16
-14
1
26
9
-13
-4
30
76
11
6
19
-14
-7
-31
17
0
7
-11
-6
6
-1
19
13
-1
-4
-14
-4
17
18
-16
22
-24
4
9
-13
-6
-38
-30
-20
39
21
17
19
-6
10
11
-7
-2
-2
-5
31
28
-1
21
13
2
-28
18
-8
15
18
-3
33
-20
11
8
-45
3
-9
5
19
-29
0
18
-2
9
-12
0
2
-9
17
-18
-10
-7
-23
10
-23
-1
5
25
-6
29
-32
42
12
28
-9
-20
15
-10
13
16
-8
-24
-33
5
-1
-13
4
33
-6
15
27
-48
21
7
-1
-5
8
-23
5
-39
-23
4
17
-4
-17
10
-21
-26
-10
10
16
40
24
33
1
41
-1
11
0
-6
30
-4
14
17
-7
3
-28
-18
-19
4
1
15
18
-7
-12
-5
-21
-8
11
15
27
-1
17
8
0
28
-27
-30
15
7
8
5
10
-36
5
18
16
6
7
-14
-4
-1
-10
-12
12
-24
-24
-14
-13
-17
-12
-36
-26
7
-7
5
-28
-53
7
-46
-34
7
24
-3
46
-34
-17
24
6
42
-10
-55
-20
16
34
-16
4
2
-22
4
-20
10
-10
-23
11
-26
-14
17
23
-8
-17
26
-28
-24
4
10
1
14
6
-19
-24
9
-6
25
16
17
0
-26
-8
1
-5
13
7
1
13
11
55
12
6
-37
-27
-20
-30
-48
-3
-9
-25
-25
-1
-39
6
20
2
-1
-4
10
24
-29
10
1
8
19
-6
-10
15
20
15
-15
-8
27
0
23
18
-14
18
2
-3
37
-22
3
22
-8
11
23
-61
15
-26
-15
5
-50
34
-23
5
-8
-23
4
12
11
14
17
51
1
7
56
40
21
45
64
-11
13
-9
29
13
5
4
-6
-3
9
-9
-10
-12
9
-19
6
17
18
-4
-23
4
-14
-24
18
-2
28
6
-5
-26
13
9
2
-5
-15
16
-1
19
38
8
9
25
-16
30
-8
-14
2
-32
-10
-10
27
29
-6
-10
7
-26
12
-1
8
8
25
-6
-9
13
1
-31
19
-16
5
1
16
10
-4
1
7
-7
32
21
-6
16
-20
5
19
-4
8
-32
-13
-16
3
-31
-9
-17
-7
-25
32
-10
11
-19
2
-18
-11
17
41
13
-29
-11
-17
8
-14
21
-3
0
18
28
4
24
1
13
14
-31
-17
1
-9
13
-29
-15
14
-30
-15
4
1
25
-4
-2
-9
-32
25
-3
19
-16
-19
2
4
21
-9
0
-25
13
0
-6
14
22
-14
-17
9
-5
11
21
-11
-10
-3
15
11
14
7
-9
18
-13
10
0
12
-6
-6
15
-11
-12
7
-5
31
-9
13
21
0
46
5
15
-3
18
-19
23
5
23
2
19
27
-17
-9
-11
20
46
16
27
-10
7
-2
9
-9
-20
3
23
4
23
-40
-26
-32
2
2
7
31
-24
-23
0
-1
-8
8
0
-11
-27
-1
-40
4
-15
-6
8
-23
-3
3
-2
-7
23
32
-3
46
36
8
46
-12
-12
-3
3
-3
-5
-9
11
-5
14
54
-7
-23
22
-12
1
-36
-19
17
-11
-7
-17
-12
7
1
-3
-9
-32
-2
30
-14
20
-14
-4
35
22
25
-8
-19
12
30
34
31
-14
-49
15
-12
15
-84
-66
-47
-9
17
18
7
15
-1
32
14
-51
-1
-9
9
29
20
36
7
-10
28
-3
3
33
67
35
-5
23
-9
-21
8
-33
6
8
36
36
-17
19
-10
-36
-7
-99
-66
12
-52
-13
6
12
24
29
7
21
-8
13
2
6
19
21
20
-12
6
11
6
-7
1
12
-8
6
-20
-3
-26
-3
-12
-17
1
14
-12
5
18
10
-7
27
74
-22
27
18
34
24
34
0
-7
-16
-6
-13
9
5
-8
-4
-20
-13
21
8
23
9
21
1
3
17
-25
18
-41
0
-30
8
38
-19
26
-21
-27
-8
24
31
-2
42
-2
15
0
15
-11
0
21
22
9
-3
4
-6
17
-6
10
6
5
-18
-4
2
-17
-26
-22
-18
22
8
-33
-24
29
-36
2
-21
-3
0
14
13
-5
-17
15
-6
7
0
-11
19
-29
21
-3
-12
-15
8
-51
8
-13
0
28
-6
26
11
-4
17
13
17
36
22
39
25
-12
2
14
-46
6
-58
16
-21
12
-2
9
46
-34
-42
-19
5
16
13
18
28
23
43
-2
-8
8
38
9
2
-3
32
28
31
5
-14
10
-14
6
18
-2
22
-9
25
-1
5
-23
-2
24
21
22
9
-18
-25
-10
-22
11
4
9
-15
5
-14
3
7
-18
-24
-2
9
7
0
-3
-23
-12
3
25
21
5
-21
3
12
-1
-10
-2
-14
-16
-11
33
39
24
12
17
7
8
-41
-39
-16
-32
31
5
-16
-13
-2
37
25
18
5
-27
24
-26
25
22
-68
-5
-5
-22
32
19
9
-36
-16
-55
-2
-8
-10
7
5
5
-1
-8
-42
-1
-8
8
-11
14
-4
-10
-13
-11
-1
9
-3
16
-9
-8
-6
15
1
19
-2
20
49
26
16
36
-3
8
2
-4
15
17
-11
4
-62
0
20
2
13
-34
9
15
10
24
-9
-20
-127
-37
-29
0
24
3
20
27
1
-21
12
-28
11
-7
17
-21
-19
-28
18
5
14
21
-12
8
17
10
11
-25
6
-9
1
-1
26
-2
-7
4
-9
-43
-36
-25
-8
-1
-2
11
-9
3
-9
3
-6
-4
5
-13
-41
-5
27
20
6
3
-4
-11
6
-2
4
11
3
5
19
34
-3
11
26
-8
5
-4
4
-18
4
11
34
-6
13
-4
-19
-13
-4
0
-17
4
-30
-5
-22
-12
29
-1
4
11
-6
10
-3
4
-1
4
20
24
-11
-5
-10
-12
-16
-28
9
-7
-58
-59
-38
-33
15
1
30
-7
6
-30
11
24
-21
37
16
33
-19
-43
-62
-17
18
-20
35
22
-21
25
5
-23
12
4
35
6
13
-21
-41
-34
6
38
2
44
-23
-29
-38
-19
18
1
15
-5
-25
-43
-12
21
28
-6
-21
-26
7
-3
13
3
-10
-33
-2
5
-3
12
3
-6
2
-5
-5
1
-8
2
15
-3
39
-12
31
-27
24
-24
9
-40
-2
-25
17
14
3
-35
23
14
10
0
-9
-4
0
-25
15
-27
-14
11
9
-5
3
-6
-9
36
10
-10
-5
-3
-39
19
0
13
4
-2
-5
37
27
24
-8
14
33
74
39
4
-13
-11
6
10
20
5
-4
-5
-17
3
-1
-1
2
-10
-7
3
2
-46
-8
2
20
-37
-17
-22
18
2
18
28
5
23
1
14
-17
6
10
7
34
11
2
8
7
-3
-20
-12
-1
14
17
4
-34
-45
-25
8
5
-21
-1
-26
18
-12
-12
1
16
2
40
-38
3
19
8
9
-9
-30
-16
2
1
43
-1
-8
-13
3
15
9
5
-52
-70
-19
42
-6
8
22
-28
-30
-38
-38
-50
8
25
11
34
-20
-79
-61
26
-5
29
-7
18
6
26
4
-28
33
4
10
0
16
3
-36
-2
-29
-32
-35
-1
-10
16
9
42
-10
36
16
14
7
-37
-36
-4
-28
50
-1
24
13
-10
-62
-27
-54
-26
38
-3
22
-22
-21
-39
5
4
-12
39
-20
-35
12
29
-4
-9
21
-46
-16
-14
25
6
-3
-9
-36
-18
22
0
2
26
1
36
7
-25
-5
17
5
31
24
16
44
-44
-12
-11
-20
-35
-15
-40
-35
4
-19
19
-2
12
3
-23
27
-14
14
13
-15
18
12
9
5
-8
4
6
2
11
18
-1
13
7
-3
-4
15
-3
34
1
-17
7
-29
4
-2
-5
6
-4
-16
-21
-2
-10
-5
18
3
-2
-4
1
7
4
28
1
14
25
0
34
-10
9
4
-30
-26
-54
-44
-21
-39
18
9
-4
8
-9
11
-8
12
-16
-9
-10
6
30
45
24
25
6
6
12
19
4
32
-21
3
3
-13
8
-11
7
-22
19
5
-32
-18
-1
-12
0
42
-26
23
-12
-8
-10
-16
23
5
3
10
3
11
2
28
19
8
-26
24
24
-17
53
28
43
26
-22
16
35
19
14
-16
11
-8
-21
3
-25
20
-50
9
-25
-16
-27
10
4
24
9
-25
4
44
-2
-10
16
-1
18
38
14
11
-21
11
6
23
-1
15
12
-20
-7
-6
13
1
-5
-13
-31
-29
-56
-33
1
-50
-32
-11
-58
-44
-56
-19
-13
-11
-20
-39
19
32
-8
-11
-10
14
21
-1
-4
-4
-4
-6
0
25
-23
20
-3
-25
-20
-4
1
17
7
20
-36
-11
4
-5
8
3
11
6
19
-7
5
21
27
-1
-1
-7
-36
-12
6
5
-9
19
13
-6
-12
13
23
-28
28
-13
-14
11
-38
8
6
-1
-19
30
21
19
32
16
-21
-11
2
29
38
15
-1
-22
-39
-53
8
12
-6
20
17
-55
-14
-3
-32
6
0
2
6
4
6
-1
1
-20
6
22
25
-6
-23
-5
-48
-12
21
-7
28
-10
-32
1
12
1
15
-7
-33
-11
31
20
7
-1
24
-76
-84
-25
-22
-12
-3
9
35
16
36
3
-8
-7
35
-4
11
-12
-2
2
-7
11
-5
-23
15
-9
-7
15
2
-4
19
21
-4
-3
11
8
-2
1
-7
14
4
18
-6
4
18
-1
-27
2
-5
-5
-4
12
8
-19
-12
-2
19
17
-27
20
-27
3
-10
-8
0
-10
-6
41
-11
-1
-3
15
-16
42
10
-34
29
6
16
23
11
0
-47
21
-21
25
-11
-50
-26
9
44
13
38
-22
-116
-19
-30
-5
8
42
10
-9
-10
-20
-16
5
-7
0
9
16
-2
-6
4
-37
12
12
11
1
-2
-6
-9
13
6
21
-3
15
3
5
-9
-14
11
-12
-3
12
-10
4
-12
10
9
27
-28
-27
3
16
8
13
-15
0
34
-4
38
-12
34
9
30
0
-26
-44
-25
-44
9
-22
3
20
0
24
-6
-11
-5
-2
24
9
-34
-29
7
9
18
-8
-24
-45
-29
-9
-8
3
27
-15
39
-15
-7
18
-17
16
20
7
35
24
24
-3
21
6
4
5
-1
-4
27
19
25
14
34
5
40
21
23
-13
18
-30
24
-18
-14
20
4
24
13
-1
8
-6
-24
9
4
10
-16
-9
-13
-36
-4
-10
5
-12
11
0
-13
-6
-26
-13
-1
-5
6
-6
-2
22
13
32
12
33
34
6
9
-31
-11
25
-34
-1
4
-45
-27
-18
10
-2
7
0
-5
-18
4
7
38
6
7
-22
4
26
10
6
-17
-5
-72
-11
37
7
41
-21
-26
-32
3
27
19
4
7
-43
-8
-32
-4
17
11
8
-2
0
2
1
18
30
15
-14
4
-11
31
-7
-20
-33
-37
5
19
-6
18
-49
11
-11
-1
9
2
-18
19
48
-9
16
6
27
-69
23
6
27
23
-6
31
-10
-9
-55
-39
7
26
14
33
-46
-7
1
23
18
3
-18
-22
-26
17
28
4
-10
-50
-35
28
22
4
0
-13
-10
-7
-6
7
-11
-7
-5
-15
-14
-24
-21
-5
15
-2
14
54
46
5
-12
-6
-12
-23
23
38
11
-12
14
8
6
-9
-2
9
-14
9
-20
1
-18
-16
-30
0
8
-6
1
13
-30
17
2
-2
19
4
-23
25
-14
22
-2
16
30
8
32
-2
11
-1
-19
3
4
-16
24
-20
-18
-27
2
17
-6
6
-38
11
4
-15
11
7
-10
6
4
-17
0
2
-11
11
4
-17
1
-9
-2
6
-12
-26
-18
-8
-8
-2
-14
6
37
-7
-32
-15
-26
9
28
26
-11
-99
7
20
-6
20
29
12
-2
11
17
-19
7
3
-11
25
17
4
-3
-1
26
-12
28
-11
11
-8
-25
47
15
10
-11
-1
1
-11
12
-28
-1
-1
12
8
-37
23
-12
4
-7
6
15
9
-4
22
-1
13
2
-6
-6
-7
-35
11
25
49
1
-31
-15
-81
35
20
37
-2
-108
-29
-49
1
24
24
-7
-4
-21
-68
-23
6
19
14
-15
-30
-27
-10
28
-8
-1
-6
-10
27
12
30
-13
-1
3
-13
24
10
-16
14
13
40
-21
7
30
-1
16
-27
14
-11
9
3
-15
14
1
16
3
-7
22
-9
11
6
0
0
-3
19
8
-43
22
2
-13
24
-13
8
-39
-7
7
-3
18
-4
-10
-13
-5
0
7
17
-10
3
0
0
21
-35
14
8
20
10
-16
-15
-4
5
19
-19
13
-9
-54
-55
-10
-2
-21
-1
-42
-29
-53
-45
-68
-48
-46
-75
-7
-11
0
41
-2
33
53
59
32
5
9
4
-19
-7
17
-19
34
-13
6
-3
-2
2
19
-7
-1
-20
13
19
12
3
18
-1
-14
-20
-18
1
-2
-4
-18
0
-26
-13
1
-13
12
30
21
10
28
23
9
7
53
20
11
-12
11
-11
10
30
-16
-6
25
-14
-2
19
-11
-11
27
11
-7
12
-27
-114
-53
-5
-16
45
4
-4
-19
16
-50
-9
15
30
29
34
0
1
-19
13
-2
4
13
-37
18
-13
1
-1
-16
-8
-25
-14
-11
8
16
18
-14
-14
-76
-16
-22
-23
-10
-31
-57
1
-5
3
-23
32
17
35
1
-19
-19
17
16
11
15
-8
-6
3
-18
-38
-7
-11
4
3
6
-14
-5
-10
3
3
30
11
-5
-2
7
0
8
-7
16
20
-16
-3
11
-24
-7
-13
25
25
6
14
-5
11
-7
23
1
-13
-6
-3
5
30
5
20
-4
30
21
22
-34
13
6
28
14
-40
-2
5
2
25
-19
8
-15
20
-1
-4
-5
-7
15
13
-18
-31
-39
-19
30
-14
13
16
-3
3
-14
32
-2
11
15
12
-4
-53
-24
-12
7
17
-9
-25
-35
-6
16
21
4
-31
0
-17
-41
-39
-16
-21
33
-17
24
27
-11
39
72
12
12
19
-17
-1
26
18
-9
28
-10
7
-25
10
0
8
15
-9
-1
4
-32
-5
-69
25
3
17
22
-3
24
-12
22
1
-10
30
-3
7
25
19
21
-8
1
-7
-10
-8
12
22
12
11
-17
-1
3
12
29
-1
5
34
21
0
10
-20
16
16
18
13
13
15
9
-17
-29
-16
-19
29
-10
-25
-2
-21
24
15
15
37
-28
18
29
1
7
-10
-32
17
-16
-2
-70
-22
-60
-9
16
6
14
-4
-17
-38
-9
-7
6
20
19
15
11
-8
15
1
22
-11
3
31
4
2
21
17
18
1
22
-9
0
39
-15
11
12
14
-40
-59
-27
-49
-25
27
9
10
6
-57
-2
-1
34
21
-5
-4
-14
29
-37
35
-8
5
11
20
0
-17
-6
-7
10
4
-5
0
-2
-25
-8
41
-3
-14
-16
1
-93
-9
1
-4
33
8
8
0
4
-13
19
-8
18
-12
15
37
33
38
27
-39
-6
6
4
3
36
30
30
-7
-9
-4
4
-16
14
18
-21
-3
-6
-6
15
4
1
1
1
16
18
1
30
-12
14
24
27
-2
-4
-12
-32
-1
9
18
19
-8
12
-18
2
-24
-19
7
17
-2
12
-23
6
-6
-12
-10
14
4
1
-13
-29
-4
-21
-49
-13
-32
15
20
32
19
42
6
-3
32
25
6
38
-20
21
-27
21
10
5
8
-30
-13
24
-4
21
-27
-84
-37
-47
-16
15
12
3
8
25
5
0
13
-13
28
-23
22
-10
14
12
2
24
-4
0
10
10
2
4
-8
-6
-5
12
5
16
-6
8
19
-19
6
-24
-3
-11
-11
-7
20
33
-2
3
-2
12
6
5
34
28
4
28
0
35
4
4
-25
21
-41
18
0
-55
-11
-68
3
4
6
-8
21
18
-6
25
8
-13
-23
13
3
-26
0
-19
-3
23
18
13
-6
-13
4
32
6
11
11
27
7
-4
27
-5
11
-7
7
11
-10
-13
11
27
30
-19
32
34
9
39
16
-11
-35
15
-7
-1
21
9
11
21
-20
-24
9
-7
-14
20
-25
1
-16
-25
-26
11
-26
21
4
-35
-9
16
17
15
23
-16
-51
-19
14
-16
6
22
8
13
6
34
-6
22
-34
18
27
-2
12
24
5
-15
-14
-9
10
8
16
9
-2
5
-14
-51
-13
-19
-2
-2
-27
-1
-6
-6
5
-10
22
8
44
-8
10
14
6
49
18
-9
3
-25
-51
-15
-14
14
-32
9
-18
-13
-24
6
0
-12
30
-22
-12
-7
-22
17
20
13
8
6
-3
-6
27
15
33
15
24
7
35
12
11
19
0
1
14
-12
-13
27
-21
-19
28
37
24
12
-25
26
1
7
-5
-7
25
-3
12
14
15
29
-26
-27
20
-26
-2
-17
22
1
5
21
5
-22
9
-21
0
-2
6
-5
19
9
-28
25
-6
13
-5
8
-8
-35
16
-18
5
10
-31
2
-28
0
-8
-8
-22
17
7
-17
-3
-29
-21
-27
-14
-30
-36
-34
-106
-80
-31
-60
-16
-13
-10
8
17
13
10
-36
22
23
18
18
-14
31
4
24
11
-4
7
11
6
3
2
9
-21
-15
4
-3
30
1
17
-3
-23
25
-55
17
-36
-19
-5
-3
31
-30
2
-10
-12
1
6
16
15
8
37
-10
13
20
15
34
12
24
7
-13
13
10
33
27
7
22
-4
44
10
-45
30
-18
-14
17
-19
-22
10
-26
12
30
6
-9
-5
-4
-15
27
-2
3
0
1
12
-16
3
-16
-6
-6
-8
-21
3
-7
1
26
12
-3
-30
-11
-3
9
-12
23
31
17
27
23
20
12
-1
-8
-18
-5
-16
-9
23
-15
-10
-15
27
-1
12
-27
3
-44
13
-6
7
-2
5
-18
1
2
-11
-15
6
-3
23
2
5
31
15
17
16
20
17
18
-11
-23
26
-41
19
-30
-66
12
-80
-1
25
10
7
4
0
29
22
30
7
14
-12
-74
-100
-79
-5
-7
3
-30
8
11
3
5
8
-32
13
2
21
-2
10
10
0
3
-39
-58
-7
-21
-15
1
-29
17
3
-12
36
-3
-1
45
5
-12
-4
20
-1
-7
19
5
30
-3
-22
16
-25
-1
1
-5
2
-34
14
32
-7
-2
-68
-20
-4
5
7
31
30
13
14
16
-9
-2
9
-1
-11
6
25
-2
8
28
5
18
11
11
6
1
-2
10
-13
10
-3
-5
17
-9
-9
-15
-40
-10
-7
-13
-42
17
-11
1
-25
19
-15
-21
22
29
7
33
3
17
18
5
22
10
16
13
18
33
-16
-1
15
-27
4
-60
-12
-28
-72
-10
-22
-7
-2
-5
-13
-9
-12
-26
-4
8
3
6
-38
-8
-26
-9
10
-3
28
19
-7
-13
5
20
-3
8
15
2
17
-1
-10
9
1
38
15
0
-10
12
11
-3
2
-22
3
-18
7
-4
23
39
-14
-6
-51
-19
-28
1
-6
5
44
-33
-6
-13
11
9
-5
-13
4
39
58
-13
-1
-43
-21
-63
-37
-11
-9
-26
-4
-3
-1
20
5
13
-9
11
10
5
21
-13
14
1
-29
11
31
-7
-6
13
7
-5
8
3
-2
16
-8
13
-3
6
-5
-19
18
4
-20
3
-12
-8
-21
26
3
23
14
-1
-2
-32
7
18
23
10
29
40
45
22
39
15
3
10
23
-12
29
52
7
27
-2
-5
-22
6
28
-11
17
-4
18
-13
12
-15
-16
-6
25
12
-5
17
-28
5
-3
6
-8
-1
-9
-16
13
3
-1
-9
13
4
3
-16
-13
11
-8
19
5
7
14
14
20
22
-5
8
-30
25
-6
0
11
-19
11
5
-9
-6
2
19
20
-31
1
49
25
5
-40
-1
0
10
35
8
5
23
13
-25
12
-17
4
17
53
-23
21
-54
-61
2
-20
11
-12
11
0
0
19
-16
7
7
33
-1
-1
-15
-2
-18
5
12
-6
36
21
14
14
13
-17
19
-1
36
10
31
12
-6
5
-20
-31
3
3
-9
-22
-30
-26
-33
-34
-37
-12
6
10
-3
12
2
-3
7
5
-21
27
-11
-5
-7
-1
15
6
17
-16
14
-12
12
0
-7
-4
14
-8
10
35
-24
-28
-32
-8
11
11
-1
-3
-6
2
-16
4
6
-6
-9
-2
-18
25
10
12
18
9
13
-9
45
61
-4
3
-24
-36
-14
-28
-43
-1
-10
1
1
2
26
10
0
-9
-13
19
-5
3
-13
-5
19
-14
20
12
5
-17
2
-11
44
19
-13
-6
-5
1
-16
32
6
21
-10
0
-6
-32
-16
-7
9
6
7
0
12
19
25
11
45
-10
12
23
-4
12
-1
-14
31
-15
17
-8
56
45
68
45
61
-6
-17
2
1
-5
-25
-11
-18
2
19
-12
4
-9
2
-5
15
34
-15
-37
1
-17
-25
19
23
21
3
14
-3
3
16
29
20
8
24
29
-2
15
0
11
9
25
-9
-15
4
20
-4
-31
2
-32
-12
-36
-11
-12
-24
-19
-18
-54
-2
17
-9
-3
0
-21
-28
-38
-24
-40
-18
1
1
14
14
40
27
23
-28
21
-3
23
-8
22
4
19
11
13
8
-19
-23
-9
6
6
-10
1
-13
7
-10
6
-18
-7
-2
3
-8
-17
-10
-11
13
-24
8
22
-25
43
-17
14
3
6
16
-5
19
31
50
37
-3
0
-13
5
6
-23
-25
18
-10
3
-6
-32
-3
-1
-2
14
-26
-1
-21
18
0
-3
-1
-36
-16
9
12
8
7
0
-15
9
26
21
28
12
34
2
-15
9
-6
-8
7
5
21
-8
23
-9
-51
-4
22
10
-10
-10
-16
-24
-38
-21
16
-24
31
-4
13
34
