21
5
-16
-43
8
26
-12
15
69
-5
-34
-17
-7
-5
18
-44
-2
15
10
-29
6
-69
11
2
-22
24
3
4
-15
-6
24
-32
-16
17
-15
-28
17
-19
6
-30
-6
-36
2
14
20
11
-17
23
-24
-27
26
6
1
25
-35
-5
-26
2
14
-16
-2
23
14
-7
-9
-1
-6
1
8
10
-35
-1
32
-34
45
-24
-22
17
-1
-49
-14
-36
7
25
14
30
-25
-17
22
-1
36
-3
-50
37
4
12
16
11
33
5
18
-40
-30
17
17
-80
0
1
-9
-50
-3
47
6
-46
23
-7
-7
2
19
-7
-28
12
51
-14
-17
16
4
-6
1
18
33
44
37
20
-22
-21
-52
44
7
1
-15
-11
-17
40
7
14
10
34
24
-24
26
20
-58
15
-8
29
24
-37
-8
-28
-7
21
7
37
-21
-24
12
-25
5
-13
-68
14
19
14
35
-24
10
-4
-21
-29
-6
5
32
12
11
19
-4
-7
-19
24
7
-21
-22
8
10
42
4
7
-21
8
-12
15
-28
-17
6
2
50
60
8
14
-15
-2
49
-14
25
28
-53
4
-36
8
60
-22
-17
17
9
6
4
50
2
-8
15
-1
-15
-34
25
23
6
-14
-22
18
-62
7
-5
25
-26
2
17
23
9
-8
-27
14
-9
-7
5
13
13
22
58
-8
20
33
28
-14
-37
29
-11
12
28
22
-4
34
6
38
9
29
-3
4
-26
7
17
3
0
-7
44
-33
40
21
-5
21
18
10
-10
-15
-6
-2
1
27
21
15
14
3
-11
-57
-11
12
-52
-8
16
-8
20
-13
38
-13
-17
3
19
11
19
8
-22
8
-5
16
42
-15
-15
18
-34
14
-14
-36
58
2
14
20
1
-27
19
1
-59
-19
11
6
-17
7
-13
-6
43
41
-14
10
0
19
-3
-1
-7
34
1
31
-40
-12
15
7
-2
5
13
-25
0
-10
27
22
78
7
17
18
30
-18
-15
36
6
-15
10
20
-9
23
24
-2
-6
20
-5
-44
-30
41
9
-47
-5
-11
3
44
-35
0
8
31
-2
-13
-5
4
-20
-22
26
-2
26
0
13
21
14
1
13
-4
-4
4
7
8
5
17
-28
8
-3
-10
24
-8
8
9
-11
0
-9
-30
33
-9
18
32
-46
2
12
2
1
0
25
19
-2
4
23
-2
-17
4
-23
8
-19
-2
24
5
5
37
-7
29
11
-12
-12
-9
17
9
-21
-28
-17
2
23
42
8
0
13
-14
-32
-16
-8
-7
40
-11
-46
1
17
5
0
2
4
-11
18
5
24
5
19
-18
-2
-2
14
9
16
-18
-2
6
-6
-9
10
2
-37
13
-12
-12
37
29
19
1
8
18
-13
-7
20
-31
-11
-17
21
-18
16
16
-20
13
-9
-28
8
-9
-36
51
28
30
5
-15
-44
-12
-11
26
-16
63
-4
-21
41
-10
8
-5
10
47
-13
-8
-10
18
4
-15
-15
-1
-6
-7
20
13
14
15
-35
32
6
22
1
20
-12
-14
1
-1
24
-43
48
26
-5
11
13
-9
4
53
37
7
41
36
9
5
48
2
17
9
-51
18
35
7
-12
-3
-20
3
9
9
21
-10
37
6
21
-19
16
19
28
25
45
-4
20
15
-7
-14
-27
-6
1
-6
29
4
-4
5
-15
19
15
-7
-27
-60
15
33
-16
20
-27
48
6
30
21
-8
-5
20
29
12
18
6
13
-10
1
-22
-6
17
3
-3
-2
14
10
-9
-14
-9
15
-7
-6
-13
-26
33
5
-2
26
8
-27
-1
40
12
-9
6
0
29
-17
3
-14
5
-1
7
29
0
20
-2
15
11
-19
-15
15
15
-10
4
27
-9
14
-53
-15
11
-14
-6
6
-8
29
32
-27
-16
52
15
-21
12
-29
21
42
5
17
-47
-1
31
17
21
16
62
7
-36
50
-7
27
-21
-17
-42
13
7
-32
5
-14
16
-7
-13
-17
-13
16
-13
-8
10
0
-13
1
11
-26
3
-3
3
-8
22
12
30
20
-71
-6
55
7
10
20
-2
-5
11
2
25
39
-11
9
-26
-41
-6
1
-17
15
-12
36
24
30
24
-56
-17
-2
-14
-23
-41
-20
35
-1
2
-37
-16
-22
5
47
-23
-4
5
20
21
24
-50
26
-30
19
-6
5
26
-9
4
-1
47
-27
8
-29
15
23
-33
11
-5
-31
-29
-5
-9
36
-1
14
25
10
87
17
-38
-31
10
-2
15
-36
9
-24
-7
-5
23
-3
-6
26
1
-3
32
-15
9
38
14
-26
2
21
-5
3
-1
-22
-24
16
-1
23
-19
3
-41
-29
20
1
-6
8
8
-15
-6
22
12
12
13
-8
-20
-21
8
-59
21
8
-26
3
23
0
14
-4
-29
50
35
21
-18
-8
-22
20
-29
26
38
-26
-12
42
11
14
-13
-5
9
0
4
16
21
-49
-47
15
17
27
8
-16
29
14
-4
7
12
1
-6
11
33
20
-8
15
-24
25
7
23
11
30
-27
0
1
16
-4
4
-10
-18
-5
27
37
13
-10
5
4
-44
-44
-15
-5
-8
18
-18
54
-4
1
0
9
20
-13
-16
-31
-1
8
43
24
63
10
18
-17
-32
13
21
23
-27
-24
-1
-22
1
6
-42
-23
-8
-19
37
25
33
19
11
-15
-2
13
4
-4
-2
3
-26
20
39
-14
14
13
19
24
-39
11
-1
28
6
-6
3
36
-22
21
-2
38
-12
-9
6
9
12
33
-1
18
24
-17
15
-20
22
2
23
12
9
1
22
-8
-6
18
30
-4
6
1
5
-6
-11
-9
-63
-19
20
20
37
17
35
-7
-4
20
-1
6
6
-35
9
-9
24
-4
36
-1
-5
7
-10
33
-19
-5
44
-28
8
28
0
-92
10
5
30
-40
6
15
-22
-5
-10
4
25
0
-3
23
-16
8
-13
-3
3
10
5
18
-2
5
15
-9
-4
33
12
-20
-4
0
45
-6
81
16
23
-5
21
-21
-34
24
0
-9
3
7
26
6
-11
78
12
2
-21
15
59
-11
-7
20
9
13
33
-27
13
0
6
-24
-22
-15
25
0
1
20
-5
17
-22
8
-10
-1
23
-2
2
12
13
-39
-23
-6
-13
-15
-15
10
19
-10
13
25
-8
-8
7
6
21
-5
0
15
-11
-10
29
-9
-1
20
8
5
-14
-9
-19
15
12
9
-18
18
19
-1
73
-2
7
9
23
-34
16
18
4
31
2
21
-7
10
14
-8
-29
12
-40
5
6
-2
20
11
-2
5
19
51
-42
9
36
28
3
31
4
0
-11
1
0
-5
3
20
-25
36
-12
23
-1
16
0
3
-6
-2
14
23
-9
30
-19
37
11
12
1
9
-43
-24
21
16
25
17
-12
28
23
6
0
11
0
11
9
5
-22
22
20
-3
-5
-42
8
0
-31
12
8
25
-20
-26
-12
-15
8
16
47
-3
8
26
-24
-14
-33
25
-43
-1
14
-10
-47
3
-1
-10
7
25
0
20
-22
18
-7
-18
-5
26
-14
-21
16
17
12
-28
14
-5
6
-4
3
25
7
-24
12
22
9
-29
23
9
-26
5
17
3
54
15
-8
25
-14
0
11
37
-13
60
-17
24
14
-20
27
5
-7
7
5
-23
1
20
32
9
-56
-11
-1
13
8
5
-42
13
11
9
8
15
-17
0
-19
-28
16
13
4
44
-3
29
4
44
-5
-12
-8
15
29
28
-13
11
4
-10
10
5
19
25
-17
-4
29
4
-16
-13
-12
11
22
28
3
9
19
37
2
-18
-6
-8
-8
10
36
24
3
-8
41
-1
-1
21
-6
10
-31
-2
54
17
-18
-15
12
5
-6
-33
-7
-30
-34
-17
28
-6
9
-38
-9
-4
-11
-17
14
-3
8
10
-20
-7
87
7
-21
9
4
-9
33
-8
16
-68
1
16
16
13
11
30
-7
-35
17
-15
32
-5
-17
-41
26
-8
-37
-5
-25
8
-3
-11
-22
-5
33
-13
-16
1
-13
5
13
2
-17
-11
14
15
-48
18
-8
18
5
11
-11
23
-10
-21
-29
15
-5
-36
8
-28
11
-4
22
13
-19
-4
-30
6
-6
15
-91
21
13
8
18
6
-26
-22
21
4
-22
14
0
-20
12
-17
19
8
8
13
-2
-10
-44
4
0
19
-55
-12
-37
-13
22
-16
7
19
-36
5
32
5
10
9
-30
11
4
7
40
-32
-8
35
-39
25
8
11
-3
-42
-3
31
38
17
-11
-15
-6
-10
1
11
-10
-39
18
30
-5
4
2
45
-2
10
28
1
34
-10
8
-17
-10
-13
30
19
-5
6
22
-1
-49
-7
-1
-6
-5
18
38
-27
17
25
-28
5
0
-6
23
26
-11
5
-32
-27
46
-30
13
18
1
-10
33
9
-11
9
-21
19
5
-2
16
6
14
-8
18
3
29
45
-32
-29
-13
-10
14
-2
18
0
19
-9
15
0
-24
-2
-15
7
-16
5
17
-2
75
22
-4
-2
21
-10
-8
-18
10
12
10
-14
7
-15
8
-16
-11
-22
-2
16
9
7
-3
9
23
26
23
-5
5
-28
13
39
12
-19
11
-1
14
11
8
18
-16
-10
-11
-4
12
-44
39
5
0
-28
-4
11
-51
-12
-11
2
-15
39
0
-26
-41
15
1
16
-19
26
-17
13
-29
3
8
19
13
-1
23
17
12
3
25
29
-52
5
10
34
-53
7
-35
-3
28
24
7
19
-27
10
44
-1
32
-5
13
12
-17
-6
2
21
8
1
-20
-9
-7
29
-12
5
-18
-4
3
0
-44
-22
9
3
-17
12
-7
16
6
11
-20
17
12
21
4
-18
-28
-3
-13
-14
-37
4
0
11
-6
7
-2
7
-12
46
-14
-17
-4
15
17
-4
-31
-14
-13
25
28
12
2
24
-25
-1
-56
10
11
-1
-47
-3
20
14
16
-15
1
22
-3
16
23
77
1
6
7
30
1
-28
-2
28
6
-21
-39
-8
-14
34
-11
-3
-38
-5
26
3
2
10
-14
-11
1
-3
1
26
2
-4
4
22
7
-65
34
19
15
-24
2
29
1
19
-19
-35
0
-57
-7
-57
2
16
34
26
-40
18
-49
-17
0
-80
-31
-8
-1
-53
-26
35
25
11
40
60
-19
-19
-20
3
37
11
-26
21
11
-7
-3
-50
30
-26
52
14
11
-15
13
-40
-14
-6
-23
19
11
8
-53
36
-49
0
-14
-17
17
-10
-9
10
-15
30
22
-6
-4
-18
29
7
61
3
-3
-41
-31
11
3
0
-28
-13
22
-8
-33
-46
-7
-23
-6
-18
-7
9
18
4
17
23
-29
19
34
30
16
-7
-17
27
-13
1
18
-37
21
3
5
16
11
-27
25
-5
-14
18
-14
11
12
-21
-8
37
-24
-31
1
10
0
-8
14
14
15
-22
-34
23
9
6
26
7
-9
-1
-9
21
-16
-6
-30
-34
-3
12
13
17
1
-10
24
2
16
11
41
27
14
4
-50
23
34
1
-47
3
-29
16
-52
13
-17
-4
15
20
29
9
26
-18
18
-29
12
-34
2
25
28
3
10
21
36
14
4
-2
9
4
-6
-86
-4
-2
8
-20
4
1
22
-1
28
11
44
40
11
-11
-12
-4
2
-29
-5
32
-12
-2
9
10
20
-20
7
21
4
6
19
21
-22
0
-47
7
-6
-21
16
5
-5
6
17
30
-1
-5
2
18
38
17
-12
16
-15
-19
44
-12
19
15
13
-11
19
0
-2
21
-11
25
16
3
33
-8
0
7
-17
23
55
7
-26
-48
-3
-10
14
9
21
-18
15
-62
4
12
-37
0
-17
1
10
-6
31
5
63
16
-17
-2
54
10
8
-17
29
18
-13
-13
21
-37
-12
-12
-6
-23
18
25
-5
13
18
49
23
-1
22
-14
-6
-38
18
31
-16
-15
-12
-5
17
10
-14
15
-14
9
-14
-18
-10
-37
51
18
29
2
14
3
-41
10
-19
-3
-30
47
0
-40
-49
-7
-37
-8
-13
3
-10
33
-17
14
11
20
-9
14
21
8
13
4
-1
-1
9
-18
-35
-15
-2
-25
34
-17
8
-23
7
-5
14
-7
-3
-4
-31
-2
13
18
40
8
28
-30
-3
15
10
35
-54
3
-19
-24
7
-9
30
49
30
-16
21
17
-33
12
-7
8
-23
13
48
-2
60
23
0
1
1
17
-9
33
-1
11
-3
-21
8
-9
12
-3
1
-40
-27
33
14
1
6
41
10
8
-5
7
-27
-13
5
10
5
-28
-1
35
-2
2
23
-8
37
-1
-23
35
28
-50
43
-6
3
-53
22
-10
-24
1
-19
30
-14
30
1
7
-2
34
-4
-7
-44
9
16
18
-19
-1
6
29
43
5
28
9
-17
-21
5
1
-21
-16
0
10
-29
33
-8
-21
2
-3
5
0
3
17
29
-6
-18
42
33
28
37
16
-17
14
9
8
10
-2
-28
-26
17
7
13
-3
6
40
20
-19
17
7
3
10
-11
-4
-19
14
27
15
-22
10
-1
18
-9
21
0
18
8
-9
22
3
22
-39
27
8
30
-15
-18
16
21
18
29
34
-34
7
-17
-11
-19
2
13
-46
-23
17
48
2
9
19
-13
19
41
14
20
4
1
10
16
12
12
0
30
-9
-6
16
5
17
-3
6
19
-11
-27
24
-18
20
-31
4
-25
29
20
-7
-13
17
14
-9
21
16
-1
10
10
5
-23
30
18
8
-42
12
-22
-19
25
12
-15
21
2
1
43
-27
10
23
9
36
2
-9
-3
30
26
2
-48
9
-30
-12
7
7
-6
5
5
23
-13
-21
8
-11
23
-2
20
10
-13
6
2
16
-8
33
-2
34
-56
22
-28
-1
-7
20
18
13
-24
-16
-6
-10
2
31
-6
1
9
6
49
1
-11
17
-45
0
27
34
7
-49
-28
33
36
-16
-10
14
-24
-2
28
15
26
-35
11
33
-28
-12
5
46
0
8
-14
11
14
-24
-12
19
11
-8
-9
8
1
40
-26
-9
-63
7
-6
-21
13
-2
-20
-17
27
-6
-1
9
3
-15
14
15
-11
-1
-55
9
55
-35
-9
5
7
0
-4
-16
-18
9
-4
-42
-18
-17
-4
-12
33
29
-10
-4
1
47
17
7
35
0
-22
-23
1
45
-40
-35
12
20
-21
16
-3
8
33
15
-8
4
59
-9
37
3
25
11
20
-17
-12
-8
3
1
21
19
6
30
-11
3
-7
-9
-43
2
12
26
13
22
-3
16
-44
-54
-12
62
-6
-8
-35
47
12
-10
17
-2
-15
-1
-71
-19
-13
9
30
5
11
25
12
-26
-27
13
-4
21
-53
28
0
-23
0
14
-7
-25
27
-18
53
18
30
9
2
14
26
0
16
-13
25
10
-1
24
27
16
-3
23
-27
-38
-26
0
22
-9
-7
-20
-2
27
-10
19
-12
32
18
3
35
20
-26
11
5
35
36
-27
-16
-40
-4
20
10
17
12
-40
12
-68
8
2
-57
23
-14
11
7
-38
21
-1
2
-10
-24
1
29
2
16
12
-19
15
5
-7
15
-26
9
-19
6
10
-6
20
-21
4
-6
54
-12
3
14
-3
11
14
21
-22
-10
-8
-50
-21
14
14
-41
0
-17
19
41
2
1
-16
9
11
7
3
-3
-10
-3
11
-38
-23
-7
29
-9
-6
-36
-3
-47
-10
-18
9
-31
33
-3
6
20
-2
-14
17
21
-5
22
16
-10
-8
-12
-4
-25
15
-58
-2
20
-27
-4
19
6
0
19
-33
27
17
-9
-21
-4
-17
25
-29
27
35
-10
4
33
-5
-14
-11
-20
-11
-1
16
30
-5
-23
-52
27
9
9
2
-5
3
-18
-14
27
3
22
21
7
16
-6
8
-2
-1
50
22
9
12
21
4
-8
-16
4
-26
-8
-4
-1
-8
11
33
31
-13
5
2
-25
-70
0
-16
-6
21
-43
29
7
-5
28
33
37
-7
-40
-7
-12
-21
53
24
59
32
5
-17
-62
-7
20
-15
-30
7
11
-44
-17
-16
-13
-32
-29
-9
-2
18
19
16
7
6
15
19
3
-3
17
3
0
-7
-18
5
-16
-3
-12
-16
8
3
-18
10
-5
-11
-16
10
-1
4
-12
11
-8
1
1
-7
-5
-10
2
7
6
8
-7
-6
-9
4
-11
2
7
-7
-14
-1
-14
7
-11
10
-10
8
5
12
-8
10
-15
-6
-9
-15
0
-14
-12
9
-2
3
-6
-13
-5
-7
1
-16
7
-6
3
-9
-7
-9
10
2
-4
-1
-9
-4
-9
9
-17
-7
-8
-15
-7
-2
8
-14
5
-11
-5
-15
-6
6
-4
-3
-5
-13
5
-10
-14
8
-9
-1
10
5
-6
4
-2
2
9
-3
-17
10
-14
0
3
9
-11
-8
7
8
-7
-15
-3
-12
-10
-9
-43
-15
21
2
31
-21
46
4
21
17
8
3
0
-6
49
4
-15
7
2
0
2
1
4
9
-7
2
7
13
-17
6
-27
3
12
-22
13
30
14
-15
60
74
-32
13
18
-16
-8
1
-7
24
26
-11
-1
-36
-5
8
43
0
17
-3
-9
-2
1
5
17
-2
31
-6
-7
-37
27
24
26
-4
-10
-19
19
18
47
-21
29
21
-17
-8
46
16
49
-46
-2
-4
14
-6
-19
-12
1
24
-18
11
-20
15
-37
-65
-11
4
52
-10
-3
45
33
-20
-15
49
55
11
18
24
-13
31
65
-5
-5
2
6
-2
-4
17
-5
3
-3
16
7
8
-20
8
17
15
-39
41
-6
0
9
1
-23
-9
-13
-1
8
13
3
10
9
6
4
-6
26
37
-31
-13
-8
24
26
6
17
33
-30
1
22
5
-57
-21
7
-15
26
-19
22
9
9
-6
-18
-9
-10
-2
20
26
16
18
26
-5
-20
-4
15
15
3
-53
-5
0
6
18
6
-7
-8
-1
26
32
-29
20
-3
5
4
23
-21
-27
-26
27
28
9
-11
-4
-21
4
-19
-2
-10
-29
-1
45
0
30
12
41
-3
-12
5
3
27
14
-27
-4
-13
-11
10
16
-39
8
-2
-13
49
17
25
-16
-18
-25
15
-2
6
11
-14
11
-1
17
-50
23
10
11
2
-5
-13
-9
2
16
18
17
-13
10
27
12
0
14
-10
12
-4
19
-25
-18
23
-17
-15
-12
-21
18
-40
11
2
6
-2
-5
-30
5
11
15
31
-3
3
8
-41
12
7
0
4
40
-7
-31
-65
10
-9
-4
0
2
23
-6
-5
27
-14
4
-10
27
-3
-22
11
11
15
-20
10
-3
-6
8
34
7
12
11
-3
5
-60
13
4
12
15
4
28
23
23
43
10
2
-4
-15
5
32
-8
28
-8
-2
8
-30
27
-3
18
-10
-29
4
19
23
-9
26
-92
-9
-27
-8
9
-1
-7
-2
1
-1
21
27
26
-23
-38
14
-10
-10
-11
17
12
-17
-8
-6
8
18
3
-27
-7
-24
19
-17
5
7
-3
2
23
8
3
-16
-73
31
28
4
18
-14
-25
-12
21
28
-21
3
6
-27
8
11
13
8
-8
29
-6
10
-4
7
29
-9
-51
-11
14
-13
-3
-4
4
3
-25
54
24
31
-15
12
-15
1
-15
9
17
16
9
45
-30
21
-27
10
-38
38
1
21
-21
32
-18
-33
20
-6
-12
-5
-51
45
5
-7
-15
0
-13
1
7
0
24
20
12
16
12
22
-16
-10
17
27
37
8
22
5
6
5
30
-2
-6
12
56
-22
5
16
-9
17
3
13
20
-70
-9
3
-43
-10
13
42
-19
-12
9
9
9
-31
-15
-24
0
6
-4
6
18
-1
-9
-29
7
25
20
12
-7
11
39
27
10
-32
8
9
20
12
31
6
38
20
-27
-32
34
-21
19
14
28
-7
-19
23
6
9
-1
8
-27
-4
10
2
3
21
21
43
31
-20
-15
5
-5
-5
-21
10
-3
-7
-8
-25
-23
-1
7
11
17
-6
-38
18
-5
-13
41
13
18
22
-2
36
-23
-13
28
-6
4
-27
-8
-67
-20
-3
-5
4
-34
-2
-1
7
41
9
-29
-28
-13
9
16
18
4
4
-16
-4
52
-12
0
21
-36
8
-16
17
0
-29
13
5
76
13
-39
42
1
-5
-2
12
40
40
-21
-5
25
44
22
12
16
20
-5
-10
8
32
-6
6
18
-19
37
4
25
8
-6
-24
47
32
-5
-26
30
4
-12
-23
27
31
28
15
-74
-41
-22
7
31
16
-33
14
3
-5
1
26
11
3
33
-19
18
-5
-4
3
27
25
0
-5
-3
7
48
-21
25
39
9
11
38
13
30
-87
-13
-5
22
-9
48
-2
46
30
-35
5
-18
32
-41
-49
-11
-27
53
-5
9
35
4
-42
4
60
58
10
-10
33
-35
-15
46
-4
-9
-6
-7
-3
13
6
-15
10
-39
-13
19
19
-88
3
26
31
-45
4
-10
24
19
-14
-15
-2
-1
-1
47
-4
13
-13
30
-6
18
2
-55
-33
-11
17
-31
9
-32
-8
-18
30
-29
-5
1
25
-18
-6
22
-27
16
24
-8
4
-9
16
11
12
-3
21
-26
-48
-79
0
-37
6
-2
-1
7
3
-2
-24
-16
0
-4
22
-37
-20
8
8
34
-14
26
14
-35
-7
18
0
14
38
-22
-8
8
15
-3
9
-22
4
51
3
8
13
15
-15
16
6
-12
41
17
-17
8
18
15
-11
11
-7
2
-34
-21
15
-17
7
-53
-13
-127
3
-14
-5
6
4
23
4
7
8
-7
4
-2
-14
8
1
-11
-27
17
18
55
-17
15
29
-10
-13
40
-16
3
-4
9
-9
2
-5
2
21
23
12
17
3
-19
66
-15
8
6
-8
-15
2
-4
21
14
57
17
-8
17
-6
-8
-12
16
48
12
-9
40
-7
13
25
21
14
-7
1
20
-7
17
2
3
20
23
9
-14
-16
-18
4
33
-19
22
-13
28
33
-10
-5
-3
-39
-14
11
9
23
77
32
-13
9
44
-4
26
7
-44
-26
6
-25
-7
11
-16
-24
22
-1
5
2
22
40
5
-6
11
27
14
15
22
-2
-15
16
13
-12
5
10
-20
22
0
12
25
24
8
0
3
-12
-17
-8
-27
7
-21
7
47
-57
-7
20
17
-2
-10
-24
18
29
11
-34
-20
-3
18
-29
36
2
-3
-11
-1
31
-3
25
25
1
-16
-18
15
41
-60
-50
23
32
2
0
-10
8
-5
25
15
17
67
14
10
23
4
7
18
-23
-12
20
15
22
21
21
-1
30
5
-6
-3
10
-15
1
2
28
-5
-1
15
7
-44
-43
-15
31
0
-7
-56
58
-2
-12
19
21
6
11
-51
15
9
-19
33
8
34
9
25
-9
-44
15
5
11
-51
16
11
-14
-13
-7
-21
-2
10
-9
28
12
29
19
18
16
15
1
-4
-8
8
3
13
-1
15
36
9
2
-38
6
43
-16
8
-19
-22
-5
10
-11
-28
-24
-25
16
5
-8
27
24
-18
1
6
22
-10
7
8
-16
32
9
-25
8
13
20
-6
-5
7
-21
6
17
21
-5
13
6
-12
4
-37
-1
4
26
21
20
17
-4
-26
-15
1
19
-9
-4
14
23
-2
13
7
35
-27
14
35
31
40
30
-24
21
-1
11
14
-67
13
32
27
15
-9
15
-6
-13
-34
22
-17
16
35
1
-4
10
-11
1
16
-4
-19
-13
30
31
-5
33
-4
4
43
22
6
15
-2
16
-11
34
-25
-8
-11
22
38
-8
16
5
1
13
-7
5
-10
-9
-9
-18
-5
-7
-14
-9
-9
-10
-17
-7
-5
4
8
-2
-14
6
4
-3
2
-6
4
10
0
-17
-14
-12
-3
-11
-11
10
-12
-7
1
-8
-7
-12
-1
-3
0
4
9
-13
-8
-7
-4
-14
-12
-16
7
5
-1
2
2
2
8
5
5
-2
8
10
-5
-18
-5
-2
11
-4
-3
10
5
7
4
6
-17
-11
3
6
-10
3
3
-7
-16
-15
2
-13
-12
-12
9
-16
8
-12
7
-11
-8
-10
1
12
-11
3
-8
-2
-12
11
-13
-2
7
8
-2
-5
3
-5
16
7
5
7
-1
-1
-17
-1
9
-13
-7
-8
3
11
2
29
2
20
2
16
-10
35
-47
1
15
8
-5
35
-24
31
50
-7
17
10
5
12
-4
6
-2
41
8
-10
-12
-15
14
-4
-6
15
-7
12
10
-29
-31
-6
-5
14
26
-5
35
14
29
-21
-16
6
-40
0
7
30
-18
8
6
1
0
5
10
29
11
-14
-20
-23
6
32
3
-8
4
18
35
-18
-8
-24
2
11
12
27
5
-39
-22
33
43
-9
-1
-6
-36
15
-17
17
29
-32
-8
50
-6
20
28
64
12
1
17
20
13
1
8
-15
4
11
-20
2
-25
-1
28
-6
-19
6
32
8
15
-7
-25
13
-11
9
17
27
5
8
37
87
14
-24
-7
21
11
-51
20
34
11
-13
42
-21
-9
0
-26
29
-4
21
18
2
18
19
-10
5
-12
-24
-21
-44
-3
1
-4
-2
32
-33
23
-31
-13
1
15
19
29
7
-30
14
-2
-9
-33
-6
10
1
7
14
19
-10
17
16
-4
15
6
-18
-1
-35
-7
-15
20
2
-2
1
18
46
87
11
6
-6
17
-5
13
-46
26
22
6
-26
18
9
23
10
-25
1
30
29
36
-18
-6
14
-11
-19
15
90
-16
14
9
41
-3
11
23
6
13
7
9
7
10
25
-19
36
-12
1
-2
0
-6
17
25
15
33
26
-7
16
19
-2
9
28
6
24
-30
58
-10
-28
-9
-1
13
31
-5
13
8
14
-6
1
-28
19
-40
3
-10
12
-7
-14
42
-7
21
36
-3
-22
-13
-38
-9
19
-3
-14
21
2
8
-14
48
-48
-18
8
-50
3
-17
11
15
-17
9
15
-4
9
6
14
18
1
-11
-5
20
34
25
-8
2
4
-26
10
16
-3
30
-20
14
22
3
-34
-2
23
7
-20
3
-17
-5
-8
-38
2
39
43
-19
17
-34
5
-3
13
-20
29
35
22
-12
15
35
-11
-5
15
23
-55
-8
-9
46
-1
44
3
-12
18
14
-18
9
1
-17
33
-7
-7
12
2
29
27
-10
3
28
-11
38
-20
-6
4
12
-4
46
-11
-3
12
8
-7
11
-22
14
10
21
-29
6
9
32
8
-17
5
-25
-24
14
14
-9
-24
20
-2
25
29
-13
-1
-13
-8
-17
0
22
9
42
11
-11
-34
1
-2
-1
-8
35
22
-11
7
6
23
-9
-15
-3
-20
1
19
24
1
-7
-5
46
-10
23
11
8
-33
11
83
45
1
-60
19
18
3
21
23
10
17
3
46
-14
-30
40
6
33
-30
1
40
-27
-5
-10
-5
21
-1
10
-4
-18
1
27
-3
-6
20
-35
14
-33
31
28
2
-5
23
-7
-3
26
13
0
11
30
17
10
0
-5
11
-14
6
16
-9
-22
-1
-22
36
-24
-10
3
40
-14
12
-6
19
-26
16
20
17
-3
-23
18
18
17
-3
-2
13
11
2
2
-20
-16
22
-32
-7
3
4
31
-4
-23
15
-30
-11
11
19
49
26
22
9
-48
-12
5
-6
-3
-17
-2
24
0
25
40
4
-35
16
-11
31
-45
19
25
-15
15
56
0
-26
-9
-9
46
-8
28
26
-32
-13
-47
-6
24
-2
2
36
-5
1
-26
-4
15
-23
22
-7
-9
-9
-10
6
-15
23
12
-9
-10
20
30
8
34
20
8
-3
18
-2
1
-6
12
-9
-11
15
8
16
-22
33
-13
7
19
-13
55
5
8
-15
23
-8
22
-11
1
-10
5
-15
27
1
-2
16
-13
-40
8
11
-19
16
0
4
-1
3
-35
-13
-4
4
-1
0
30
-29
13
13
4
-9
-20
7
35
11
-1
36
-4
-14
-87
9
1
28
10
9
10
-8
2
27
23
27
5
-19
-12
-19
9
-11
-8
-7
45
9
-26
11
3
-1
15
52
25
-3
-59
14
9
-1
25
0
10
-8
-12
73
23
-11
22
-8
9
-30
-5
28
3
-5
2
-10
10
17
5
3
14
30
29
2
-9
18
-39
-13
-9
-12
6
17
53
-15
20
20
-3
16
-31
23
-18
-32
24
23
45
14
-57
-16
25
9
6
32
-5
52
59
20
26
-4
-11
2
19
6
-25
8
13
8
8
-46
-23
9
-32
12
19
35
5
-6
25
29
23
12
35
14
-6
31
-17
3
1
8
-44
13
-12
-12
-32
5
-12
28
-4
26
13
-12
19
-1
-1
-26
-5
-3
-16
-37
27
3
-14
-17
5
-44
-12
0
9
51
1
-50
-2
12
10
-43
14
-15
-2
28
53
-12
36
39
-21
23
-14
-8
2
12
-2
22
31
6
-9
-1
50
-64
13
26
-14
-13
0
0
-17
-16
8
-10
-3
2
25
5
-63
13
5
10
-9
15
2
0
46
63
17
-13
30
-20
1
23
-2
-7
4
-14
-1
11
-8
0
7
39
12
-5
16
37
-24
-13
22
23
8
-15
-12
-1
-2
8
0
5
-26
-37
52
25
-6
-11
-32
17
18
8
-11
-20
-3
-3
-30
-3
4
-38
15
3
8
4
-14
-4
5
-4
-18
1
2
24
17
6
23
7
-6
1
-30
-3
-15
8
28
14
46
20
4
9
30
0
-8
-20
20
10
-36
9
-23
-3
48
18
-4
-20
-14
-17
-2
1
0
38
11
18
5
-34
51
11
-2
8
-20
8
6
2
0
20
-41
-8
-19
0
23
27
-5
17
5
12
12
5
-3
6
-19
-40
-24
26
-13
5
42
15
18
-27
-21
-11
21
-41
39
0
10
-35
1
-8
29
16
-22
-8
5
10
-17
61
4
-12
20
22
-25
0
-5
18
22
45
32
-17
23
18
-3
-27
37
38
12
8
44
-1
-20
3
-12
12
2
21
21
-2
15
20
3
15
10
18
24
6
-22
9
16
-21
-11
-30
18
13
-59
30
-31
-28
13
55
5
-7
47
42
-11
3
49
31
38
5
-28
-7
5
-6
-4
-13
11
9
-9
-39
0
6
1
22
-11
10
6
-5
16
41
-20
-25
-29
-26
-45
1
-8
14
-18
-9
37
-16
-11
17
-29
14
17
-2
48
6
-4
-11
3
-27
9
-23
16
17
12
-5
-2
4
-26
1
3
-16
-24
-3
-27
-10
34
-21
18
-3
-5
-1
44
21
35
-5
-13
-10
13
26
-19
-5
13
23
-26
-13
16
-7
12
15
-4
-6
22
-9
20
7
5
-5
26
7
-33
10
8
0
-12
42
15
38
-11
-1
33
15
-26
1
-9
32
-10
3
14
26
-5
3
-16
28
24
-22
-48
43
14
25
17
-5
-32
0
-32
34
-9
0
25
-6
-18
-4
-9
31
-2
13
-1
11
-8
27
1
-4
23
19
4
2
34
0
90
7
1
27
19
-8
5
-6
2
-16
11
12
18
-8
29
-60
-1
15
61
-8
15
20
5
15
30
-3
21
18
-1
32
12
-17
8
1
-3
2
35
16
-21
-13
67
7
16
9
-6
11
47
23
-9
1
23
17
14
16
-24
-6
-15
18
22
7
27
4
64
-1
19
21
85
-2
32
10
49
-3
12
11
6
14
-10
16
6
-23
7
-7
25
14
-33
6
-30
-18
60
-3
-21
-23
20
60
12
2
1
15
12
0
-8
27
10
-1
-6
-23
-18
0
25
25
13
12
-9
-45
15
11
-12
18
1
-10
-3
-4
-16
12
-3
-27
20
-16
70
-10
35
12
-1
4
-12
28
5
-4
10
-17
14
0
19
22
11
1
11
-7
22
-2
-16
15
15
4
15
-21
21
27
18
-38
-28
-6
-3
12
29
20
-19
-8
36
-20
12
-3
-13
12
0
7
13
-31
-21
-6
11
21
-2
-16
15
4
5
-19
-7
-4
-3
-1
28
-4
29
-7
4
-11
37
17
-13
21
5
32
-29
12
-1
2
12
-16
-8
15
-17
2
56
-14
16
3
-20
-47
13
28
13
24
-81
35
13
9
10
33
-32
-6
-35
1
-11
14
29
2
34
-4
-6
4
-14
-3
-10
-15
-9
8
-7
-22
-2
-16
-3
-14
28
9
22
5
12
27
22
-1
-17
29
-9
-15
26
18
3
16
-3
-16
13
14
26
27
-28
67
7
-12
-5
27
8
15
47
16
12
20
5
5
22
22
-46
-1
-8
18
5
-42
15
-4
-12
25
6
26
5
-17
31
24
23
-14
0
3
4
6
55
-17
-3
3
-62
-14
-8
7
19
-4
12
23
14
-17
17
-2
19
14
10
3
-4
6
4
7
0
9
-13
-11
-2
-22
2
-14
8
60
9
-15
0
21
63
-24
13
-17
-25
24
4
6
40
3
-18
40
-16
12
-5
63
-22
-13
42
2
-9
-14
57
-27
-4
0
-13
-11
-24
-20
27
-17
3
-14
-11
0
-5
-7
-29
10
-17
-1
-9
12
20
-4
31
1
-20
-15
-35
-16
-3
33
5
-36
-2
7
-2
-4
-26
-34
-20
7
1
14
-5
14
-29
-21
30
13
-4
39
26
19
45
-14
2
-6
12
21
0
-15
9
-4
-59
-1
11
-14
28
-15
6
-18
29
1
-2
-6
28
13
19
27
-59
4
12
-8
0
10
6
26
20
15
-28
3
-18
-3
-2
40
-26
21
5
5
-18
34
0
41
-4
-25
-3
16
7
-15
-10
-26
-11
14
3
22
23
6
10
-18
-45
-32
25
-52
5
-15
-9
-10
-43
38
-9
10
-6
7
-7
8
-14
9
42
-10
-15
21
3
20
15
-17
0
9
-22
10
-3
3
18
21
11
-15
21
-35
6
-14
28
-2
-7
11
7
-5
-19
-14
-15
33
19
17
-21
23
-32
-31
13
11
0
-18
-6
24
-39
5
-11
17
2
-1
19
2
-16
-3
-6
3
-11
-4
-44
15
9
1
3
53
-10
-41
-35
-16
12
-1
-27
5
0
4
-4
11
36
4
-7
11
-2
21
14
10
-4
6
7
34
34
10
27
22
9
22
39
-21
-39
-8
24
7
8
-19
-11
14
15
72
23
-23
15
-22
-41
-43
-12
44
47
13
8
-12
33
5
-7
26
30
8
57
29
-11
32
4
-26
-39
-9
26
20
27
1
10
21
29
-12
-20
2
-3
-18
-3
-20
12
6
-3
-31
0
5
-20
3
-2
2
7
-4
-26
-19
-14
-12
-2
-2
8
-8
-11
-15
-1
12
-21
-16
-1
8
-12
-12
3
14
9
-12
-13
-4
7
-19
-11
-10
-18
-4
-1
-8
-6
-21
-23
5
-2
-12
-19
-14
22
6
-10
-9
3
8
7
-2
-15
-23
-3
-8
-10
-8
-4
-19
3
-15
-16
3
4
-14
-2
-8
-17
-7
16
-13
-8
-6
-15
-1
10
-3
-21
-13
-1
-4
-5
-1
-14
3
-3
-9
7
-8
1
11
10
-5
-4
-20
2
-1
-19
-11
-7
-16
-13
-6
-6
-10
-8
8
-17
13
8
-7
5
-13
-22
15
16
-11
9
-6
-27
49
-5
-47
9
26
-5
-8
-6
8
8
-26
-18
25
12
41
21
-12
30
6
3
10
-12
25
0
1
30
-18
0
11
37
48
0
-2
-5
18
51
9
-11
22
-49
7
3
14
9
41
-15
33
-33
20
2
0
-3
27
8
4
11
4
24
-23
15
-14
-12
11
5
18
21
13
-16
2
-8
14
-10
-14
5
-47
7
10
-2
2
-9
-9
46
3
50
7
1
13
13
-6
-20
13
14
-12
-2
31
-30
-7
-6
33
-28
22
7
-4
8
22
-2
28
-11
-5
16
13
19
-2
10
27
-6
-11
34
23
-3
12
-10
8
25
47
-16
-15
-22
-32
12
-47
15
-2
12
17
1
21
-25
-17
-32
39
-3
15
-6
17
-19
-29
36
17
-9
-4
-9
13
18
-12
9
10
1
11
-1
-52
-6
35
-8
21
-4
-6
-44
-8
4
2
-6
12
-1
3
-4
14
34
18
-57
12
8
12
0
-7
27
23
-10
10
35
13
-11
-1
15
60
7
25
7
10
0
13
11
-25
23
-2
-38
-7
6
16
2
-25
-32
14
3
53
5
-22
12
-10
-32
-54
-2
59
-1
3
-15
6
-19
33
-15
-1
19
18
4
15
-11
22
10
14
-14
5
1
12
20
-5
10
9
20
3
-8
11
-38
-10
7
4
19
49
-1
-1
7
4
-3
11
14
-8
21
7
3
7
18
7
28
0
-16
-5
-13
19
0
18
-33
-33
-9
13
15
17
-2
23
45
43
25
-14
60
1
-3
-13
-21
20
11
0
-27
-24
-9
4
-27
2
-12
1
33
0
5
20
19
16
26
-19
12
-7
-21
18
44
2
19
-17
26
16
-1
6
11
-6
1
-51
20
14
45
-22
10
-19
51
12
59
14
7
-5
-9
-8
-20
21
-1
-30
6
3
11
9
23
22
12
-34
18
13
23
13
-3
22
-16
-12
-42
2
-1
-7
-9
21
-13
2
3
34
-16
10
-9
-11
53
38
7
-23
37
-17
34
7
-5
8
23
-4
17
10
-35
16
-27
7
14
4
18
7
-19
-23
2
2
15
7
5
-8
-13
-11
18
-8
17
-11
63
34
1
27
-16
0
4
-19
2
-3
-2
-2
12
-20
-19
3
79
-12
34
0
-24
2
8
9
15
34
10
3
14
-12
24
18
16
10
-8
15
38
15
43
-17
-15
6
-6
9
46
-8
21
-40
-3
23
27
-6
-23
-10
-5
28
11
-35
6
4
-17
-74
-17
29
12
-8
-14
35
-5
22
2
25
41
-3
19
-2
26
27
46
12
-19
0
5
-1
3
23
-11
1
3
-4
25
20
45
15
-2
-1
49
-23
13
27
-22
-18
20
-5
31
-23
-16
4
7
-3
-1
-15
13
8
-13
-36
-4
17
5
-33
9
2
-12
13
-7
-19
5
-36
21
21
3
17
10
6
6
10
17
-35
-3
-3
-52
-3
-9
-26
10
0
17
5
11
15
14
16
-19
15
-3
23
2
9
8
-2
7
17
-4
27
61
-17
25
4
15
-1
10
-4
38
12
-89
-20
3
-4
20
7
-43
-8
7
67
4
-16
7
9
9
-26
-10
18
20
18
-7
15
37
-24
0
15
43
1
9
-26
14
31
-15
28
-40
17
-3
12
13
0
-11
8
12
5
12
-12
21
7
10
17
20
-12
21
14
-5
7
19
-4
50
3
36
32
-14
-3
20
-11
33
2
20
17
-8
7
43
-26
-12
-1
-31
12
22
7
0
-35
39
7
5
1
-23
-5
5
6
-12
8
12
17
36
-3
-17
-13
37
-2
-14
3
46
21
-6
19
31
1
12
-19
22
-38
22
13
46
2
-6
-1
46
-16
30
1
12
-13
26
17
13
6
10
-29
13
-11
6
6
-8
-1
25
8
5
0
32
8
15
-11
-6
22
-13
-10
-10
-1
33
-12
24
20
-25
-12
-8
8
-14
15
-42
-3
-17
33
22
22
-6
17
5
9
12
-12
7
5
-34
37
-7
-13
18
8
-2
3
12
18
-14
7
5
-15
2
-29
28
-30
23
-4
-9
18
-32
-23
10
-12
-61
19
28
24
8
-16
-39
-15
-1
-10
5
60
9
-38
19
9
12
5
-9
31
-27
14
-16
5
9
-25
-21
2
-17
-14
14
-23
11
17
-36
34
24
26
-19
48
12
-19
22
-8
17
-23
11
11
-21
20
11
16
-9
29
19
18
37
18
1
-16
21
-12
3
4
-16
7
26
18
-20
-9
-6
20
-14
22
43
-3
19
-8
33
-2
2
-7
51
3
18
15
30
5
6
0
-4
4
-10
-10
4
-1
-8
11
4
3
-11
-21
33
-18
35
1
56
33
1
16
-10
-2
8
6
14
25
-1
-2
19
6
17
-8
-3
7
19
21
-18
0
1
33
24
-6
0
6
13
19
-26
2
25
21
0
-58
-30
-13
-4
-23
34
41
-1
8
15
-26
36
12
39
-2
-17
-6
35
-6
-36
-11
24
-12
19
-22
2
-7
13
5
-12
4
-16
-40
8
26
30
-15
9
27
-13
37
17
-21
44
-52
-6
1
12
16
9
-12
24
-25
-33
33
-20
24
-29
-29
-18
-24
60
-5
37
25
23
-34
18
47
22
18
14
4
-9
5
61
-10
9
-8
-13
-22
5
-7
-1
9
-25
-18
-18
3
12
-52
-1
2
16
33
3
-29
-10
14
11
4
15
-9
10
3
-4
31
3
24
20
-3
24
2
9
11
14
12
-18
-4
21
-2
37
14
5
58
50
43
18
33
44
18
-20
8
-18
34
25
2
0
10
-10
13
13
18
0
18
18
16
-1
8
12
14
19
-9
30
-22
-16
25
50
-16
-7
5
2
9
29
-31
-34
0
-20
-56
-8
-8
61
-18
-1
7
69
10
61
4
24
-2
-7
-33
-16
13
3
-36
12
-4
-2
-4
-21
43
-9
-19
12
40
20
2
2
-9
-18
-9
44
-15
5
-14
-3
3
12
-6
22
26
1
-18
-9
-9
20
12
-12
-8
21
-10
-60
6
32
26
1
-5
-12
-2
1
17
15
1
-8
-18
-19
-1
64
-19
11
-25
30
45
13
-12
0
-5
-32
-16
-17
20
9
-8
20
23
48
-26
-24
-7
36
38
14
2
41
-2
29
-10
24
-21
2
-37
0
3
6
-18
13
45
-10
3
-5
3
8
4
6
-20
-37
8
-26
5
36
-9
-23
-21
-7
31
21
-48
-49
25
-3
27
16
-10
21
0
-17
23
-2
-47
-6
3
-8
-27
2
11
7
11
17
-5
-17
3
-8
-27
-54
21
19
-17
35
-33
81
-27
-21
23
-2
1
-5
23
18
-4
-1
-1
-1
-1
-28
-105
2
29
-25
14
-15
46
-23
-25
-2
16
-27
24
17
4
23
-2
1
7
7
5
7
14
-18
-1
11
10
18
12
10
17
23
-24
-16
31
-5
29
14
3
16
13
-36
-15
35
2
31
-7
27
4
-15
15
32
6
13
47
-6
-11
21
14
6
-1
3
2
25
16
0
15
14
1
-29
-19
-62
10
-4
-13
-43
1
-7
42
-14
0
17
8
5
3
25
14
33
-10
9
-5
-26
2
0
23
-7
13
12
-83
35
25
-22
2
-15
-3
10
5
6
1
-35
-25
-19
-32
25
-12
34
11
8
-1
39
-16
-17
22
-27
-8
-15
20
-36
-53
-12
19
-91
-10
-60
40
28
30
27
0
-37
46
23
38
34
26
2
-14
-7
-13
-22
18
-11
2
34
5
1
-4
0
19
26
3
5
1
-33
5
1
24
-3
12
-48
7
43
-9
31
4
37
14
2
-7
35
-12
1
-14
12
29
-13
7
40
2
-34
-14
18
11
-5
-2
-19
-21
-36
-11
-122
-19
5
-12
-10
2
3
53
-45
-33
31
-6
0
31
-36
40
36
-11
27
-119
-43
2
9
34
6
63
30
-48
38
25
-39
-4
-28
4
21
-51
-65
-5
-75
-4
-16
-37
32
-11
28
27
-1
-12
-33
15
18
-7
-13
7
